{"conv2d_weights": ["-3983032", "609163", "-2169408", "-643763", "-1577319", "543822", "-1481718", "2203240", "-3417641", "-2458190", "-13311", "2438438", "-442314", "1044827", "-1333717", "-1834129", "2011119", "-1042143", "660789", "3051564", "-2639439", "-92387", "819714", "-2436516", "1271108", "-2472528", "-2593344", "-342536", "-581960", "-678387", "-1240894", "-3090386", "1918160", "-3749053", "2557914", "-1258118"], "conv2d_bias": ["0", "0", "0", "0"], "batch_normalization_a": ["220198", "249678", "295924", "199382"], "batch_normalization_b": ["67082729291776", "96620674809856", "-1238697771008", "64267432755200"], "conv2d_1_weights": ["-449510", "-861722", "-800386", "3679681", "2023144", "1724284", "1690704", "1214278", "1383205", "871945", "-1031330", "-3786941", "2214732", "1366762", "4721130", "4618994", "-182067", "2961858", "4430278", "1899756", "1206375", "-1851745", "-582828", "366347", "606703", "1323120", "-2407060", "-2329579", "1076335", "-1215159", "-153386", "-768842", "-1882932", "978442", "1107038", "-3375214", "2740386", "-252773", "-3461864", "-2396052", "955338", "-2967158", "-930853", "-1525962", "1601530", "-1907464", "-2004420", "65309", "2227263", "-556546", "207818", "1503805", "-2982450", "-676315", "1432474", "2362458", "-2210882", "-781094", "-1233245", "-380128", "-1134022", "605041", "625022", "946088", "683360", "886172", "1047800", "-1266429", "-2953716", "-409697", "1099868", "193362", "-1260922", "-3283559", "-1353982", "-1272656", "-308377", "-550996", "-808538", "1576153", "-870250", "2709282", "4421868", "-1085353", "633338", "-1919574", "-1847392", "-1301240", "-275954", "-2275213", "-932034", "-1411458", "2407040", "-1827585", "-1257084", "1420772", "-2274714", "15174", "1101027", "-5991798", "2444340", "-217855", "-2446637", "-3798742", "1036761", "-2701894", "278116", "506936", "1388419", "-3075549", "-2842809", "-446631", "394273", "2225188", "2051908", "-38599", "-1934468", "-855322", "243178", "340345", "913835", "-2234681", "-1594118", "195723", "-272982", "952506", "-623055", "136892", "-2822971", "-939259", "-1735687", "151975", "26360", "642945", "-3693168", "-1657296", "-4927410", "-1501147", "243661", "-1929057", "-1227332", "-23354", "2711394", "2223457", "-573825", "-476883", "2217409", "722976", "314371", "-1820434", "295288", "-1735110", "67754", "1794315", "-1190578", "-3737164", "4579489", "-2717215", "1451977", "2818542", "-3418922", "-1075774", "-662129", "-1526438", "-1638036", "-1769018", "-1831462", "-3948708", "623633", "142655", "477320", "303733", "1837053", "-768954", "1059706", "412532", "1479876", "2422440", "1649136", "-1241458", "-3369534", "-2084951", "-2134067", "350243", "-773533", "-2987699", "-318398", "826346", "1403058", "529685", "-645541", "122482", "-1065401", "-3544774", "-3000600", "542804", "876107", "1329914", "-13502", "1163715", "223215", "-1300592", "46032", "-1239470", "-741867", "2584054", "2450691", "2221978", "-887629", "789693", "1168000", "-496314", "-256767", "-1156168", "-1919494", "-492625", "376227", "334616", "-571984", "1101117", "1411730", "5607", "-802428", "-1080030", "1466395", "-34837", "-1541155", "3164584", "2736259", "1696909", "1574095", "-723866", "-700662", "-1813808", "2767772", "716494", "853924", "-695828", "314366", "-887914", "1113103", "-272362", "986005", "-1223773", "-1131068", "-307585", "978726", "1411007", "615493", "-449204", "429979", "405082", "203236", "-77613", "-440977", "257175", "2247703", "-1372385", "-1778974", "-1656479", "154192", "1141085", "755588", "-333861", "169588", "-2095202", "865572", "2737008", "-2618031", "-634847", "-2061418", "-998904", "-3162494", "1405288", "1821876", "171812", "-741464", "-2203242", "-1530756", "-164403", "1538013", "-1791153", "-910289", "-864119", "518882", "940593", "-952649", "-1701434", "-915018", "-842529", "-697342", "4196631", "2548510", "4392034", "372870", "-2585885", "-359617", "-2776227", "4523388", "-1491408", "1239366", "-1970870", "-583800", "-303424", "360154", "1484650", "2048046", "105966", "-4219888", "-2141556", "-1583549", "-1816043", "-1092761", "-2917338", "-261364", "353247", "-753173", "-173064", "-150564", "-417517", "-2045402", "-220175", "-2471542", "-383349", "-828044", "2640056", "-1094274", "456093", "-2524975", "-360419", "919313", "2633333", "-4232365", "524822", "1205026", "97108", "362772", "-1106612", "-121033", "-1198352", "-722723", "925266", "906191", "2542727", "2158604", "2277153", "-963214", "-1276512", "965340", "652122", "-965564", "-787232", "1702019", "-481486", "-757213", "1250381", "559658", "3925480", "-135669", "-417437", "510401", "183816", "3943692", "-773000", "610594", "-2691184", "796571", "925911", "2235854", "2452702", "2348960", "-978660", "-1888468", "-2239806", "-1191129", "-32924", "-134053", "-1306821", "-48693", "1189012", "461769", "711676", "-75401", "3483760", "-144348", "-2060039", "-3894439", "-3496966", "2219845", "1079322", "4638624", "-207581", "-1704263", "-18983", "961686", "2324324", "-1807858", "1340844", "561564", "716986", "4353023", "-2110826", "-2407464", "-169174", "1778797", "2786120", "1503438", "-1235692", "345056", "-1042328", "2478047", "1728754", "-392271", "-5052680", "2118342", "-1183049", "2181544", "-794954", "-613123", "-501567", "-456991", "-1075460", "-1200482", "3516376", "3437332", "1320264", "-1471487", "398246", "-1609028", "1479059", "-1040230", "-3653961", "-198244", "-1400580", "1105922", "-1313782", "-2035680", "263127", "729640", "-1139782", "28277", "-2499620", "2715877", "838468", "-795670", "-1259896", "-1009337", "957645", "-938421", "-2930640", "-3333903", "288059", "2648038", "3736866", "3170242", "-2869402", "148566", "-326139", "3606830", "2316739", "-916105", "-791928", "-390556", "-545666", "758460", "-2909392", "-2911490", "1432654", "2018438", "2495599", "386147", "1541282", "2558242", "-248010", "-617283", "-396624", "-1497510", "-318532", "-1181907", "-3010970", "2411837", "-1740162", "-1965692", "-1711327", "1029150", "-2015374", "-1661520", "5891672", "4815578", "2650778", "-3701628", "-396229", "-1344262", "5481494", "-1965426", "-3052629", "-421359", "706034", "1125298", "891626", "-2083824", "-577828", "-558163", "-1031722", "-415661", "-1044862", "681943", "1516686", "-11554", "-64753", "1135118", "1285191", "-1638114", "25676", "-2601328", "489357", "1037305", "870640", "2735627", "-582022", "-3001777", "563870", "2722331", "3865856", "-1846160", "1730382", "1656402", "-268405", "1771446", "-5055539", "-4704106", "-1347254", "-902792", "2493376", "738129", "641973", "2510822", "3306683", "2001980", "746716", "-2810744", "1218135", "-4384820", "-1292713", "995677", "-2615729", "-2855675", "-2054098", "2379200", "-79428", "-546346", "3660398", "1869191", "1915094", "-2613466", "-1524056", "-1122741", "3988356", "-3942213", "-2497646", "1263832", "587740", "-924414", "1126650", "-2076152", "246389", "-264822", "1122496", "-42025", "977787", "1143305", "1543579", "-1646257", "1202924", "-547808", "-110944"], "conv2d_1_bias": ["0", "0", "0", "0", "0", "0", "0", "0", "0", "0", "0", "0", "0", "0", "0", "0"], "batch_normalization_1_a": ["131502256", "160352032", "220382064", "158745760", "96437264", "218395600", "129503480", "174609744", "106163816", "138056512", "173058736", "110738312", "143028912", "153498880", "119402664", "103397848"], "batch_normalization_1_b": ["-360144923039890942940169741635944448", "643391506526493262530240083111444480", "280906975847556093700932988622077952", "451374171471003471070695761849090048", "704835125330774398603317239055646720", "-259993137595706365072449590437871616", "77988939969098257664680030619303936", "126399323017616467401254123276861440", "36744434734985435918373263488581632", "1463797346728043907363791834101841920", "-441303281663409045458336406462005248", "-183781448719888242170189037309001728", "414759113849523750244852205833158656", "252717456975696442422559262390616064", "125843200737888217449600639903465472", "-450089288745428389175772462834515968"], "dense_weights": ["10049086", "1558818", "889104", "-15277823", "12882082", "-28837192", "-2260494", "13065290", "-6984706", "11680083", "6832134", "-12247249", "-2955352", "-1694871", "-2115404", "12581828", "12139339", "-15870737", "19157446", "-5776177", "3216800", "-11575428", "-1812480", "-4685782", "-2038936", "-12733964", "15281005", "-30271928", "20472236", "7344527", "-5782554", "3229419", "10719107", "19279774", "-21533792", "1493390", "-16523006", "8763823", "2642340", "-12844580", "13079430", "5698684", "-7797041", "-32295256", "7727582", "6391068", "5354959", "-2779946", "-6946416", "-13192691", "-24880178", "16505511", "-8873537", "-360619", "2515289", "16513101", "766511", "-8802978", "2065829", "-14810952", "-12076041", "13575890", "-11442207", "-13720789", "-5171030", "-1210770", "8082379", "8477402", "-3604619", "10678879", "-13497382", "-14931731", "595398", "13714209", "20383482", "-3788450", "-30238780", "4280506", "311066", "14241014", "18388184", "6602860", "-6909340", "-12765528", "-16765819", "-10179398", "7203672", "13686471", "-5864026", "485072", "-13735001", "9995447", "-488767", "13651552", "-952473", "-18365350", "-9563322", "6309726", "-10761033", "13366148", "-208318", "-2191506", "18942408", "10111336", "2225414", "6445510", "16693180", "-20913048", "-14402090", "-22463406", "-10318704", "-14210848", "8844398", "-9183661", "11871337", "8946806", "18563180", "-419833", "-22807030", "2638564", "15748996", "-4350006", "5044142", "-24037218", "10619212", "-8962619", "9558870", "-11365192", "4038772", "-5179344", "-12295080", "-19331154", "-16003209", "10073100", "4745028", "10463216", "-16698718", "10385509", "8107666", "15555921", "15454801", "-4434778", "5978157", "2941058", "-18942792", "4199158", "-18815230", "9558604", "-2783531", "-10678916", "15040015", "-3353267", "7296208", "10810697", "-26606068", "991078", "-4627206", "7413633", "-2046004", "-4829448"], "dense_bias": ["-26599881052970891180113076924749052787288083835123662848", "41081568598747255683099981972047397526562135684050583552", "13551990687847137801448942165266836666450398725644746752", "5444616079330444941977692765826793181270939603507871744", "-7754841446876526417974897033736543495144584667063123968", "3456958755850792136517498544867360234222195838805868544", "-12820431590080261344266976242842169277529671434669916160", "-13281650841236115195321084778621527704868901153186775040", "-1449583563953638180910119418677489815660854362213711872", "5727786943316460132883191821254957711409994396967370752"]}